-1.5740939,0.7080824,-1.5307474,0.1956589,0.3191824,0.89079106,-1.229659,-0.96681386,-0.6380838,-0.66835266,0.17072046,-1.1178322,1.286926,1.2946664,1.0249656,1.5176455,-1.2015268,-1.2219746,0.4155791,0.55965,1.3897446,-1.7470952,-1.165722,1.3265032,1.0128022,1.1516335,-1.18404,-0.74138606,-0.82478255,0.18445128
-0.22796714,-0.8796151,-0.006068485,-0.5800188,0.44594446,-0.8254904,-0.83792,0.57226914,0.3248095,0.17506252,0.34055397,-0.2536036,0.38314173,-0.4523452,-0.8057788,-0.98633844,0.032445226,-0.7386601,0.5919458,-0.7202676,-0.3823395,0.6299205,-0.4081932,0.24703826,-0.3859461,0.17326641,0.6824168,0.04575839,0.22949262,-0.80268645
1.4298518,-0.19783859,0.9150009,0.475886,-1.6986066,-0.34798035,-0.12138413,1.1418011,-0.19947079,-0.37843302,-0.3302701,1.9543227,-1.2133393,-1.4330161,-0.18917343,-1.1298075,0.44180116,-0.19400635,-1.9610134,0.22053322,-1.6935984,0.86954737,1.5772738,-1.5938082,-1.3680573,-1.4432737,0.80746603,0.9017593,0.8460007,-0.18207414
0.599361,0.21023984,-0.40744597,-0.06126458,-0.55605906,0.4820633,0.15970387,0.5521911,-0.13689373,0.20799342,-0.34592533,0.82775146,-0.4641349,-0.73601896,0.27583054,0.16288236,-0.561672,0.4189366,-0.45733786,0.31138372,-1.0550603,-0.58438146,0.6027597,-0.7966866,-0.7180213,-0.34940997,-0.2877378,-0.42366138,-0.11446155,-0.27161622
-0.06425481,0.7145767,-0.77166164,0.68366003,-0.034981705,0.959251,0.8804119,-0.21738178,-0.49023446,-0.59968513,-0.8350216,0.13347796,0.1859541,0.3488843,0.93997467,0.29905137,-0.41059318,0.8388276,0.06834234,0.6363314,0.3253067,-0.86311793,-0.10066477,-0.19263473,0.08607943,0.31647032,0.7590213,-0.909961,0.9963804,0.84061587
1.5510982,0.10948663,-0.029278072,0.13498296,0.08070519,-0.1521544,0.31644002,1.6168191,0.025590027,-0.2956809,0.09844745,1.6736244,-0.741553,-1.6972761,-0.119077384,-0.3412826,0.14348257,0.35280395,-0.65306014,0.30970967,-1.0072726,0.24149413,1.3531681,-1.038465,-1.6564897,-0.40679646,0.64937586,0.33470088,1.0954,0.03822337
0.84818107,-0.06769341,0.6946533,-0.86980265,-1.0554508,0.17850745,0.5108362,1.6129081,1.0305837,0.8897435,0.13338727,1.4422138,-0.92810154,-1.7840651,0.045498617,-0.32393435,-0.2856963,0.15812074,-0.68408155,-0.31733924,-1.4555533,0.38034976,0.9706417,-0.9816541,-2.0068636,-0.32103547,0.15195403,0.84805286,-0.04146498,-0.09499594
-0.23348102,-1.0462519,0.7303729,-2.3777647,-0.91084045,-1.7298537,-1.4523892,0.70036966,2.6083796,2.47336,2.1583085,1.559764,2.127536,-0.14384677,-1.241197,1.2870142,0.47131476,-1.2906101,-1.1374822,-2.3896885,0.8872911,1.197114,-0.41841397,1.6786534,-0.03818511,2.4244113,-1.3517482,0.60953933,-1.7219641,-1.806695
1.3054545,0.089609124,0.65164363,0.21985497,0.021462975,-0.43117878,-0.08895154,1.4611138,0.059396897,0.046722706,0.72576797,0.29155132,-0.27228272,-1.9928825,-0.384605,-0.118109606,1.0720054,0.6263949,0.057489857,-0.4152616,-1.3392317,0.42437816,1.1897538,-0.18645063,-1.7081084,0.4387787,0.66775835,0.84656787,1.4760567,-0.002342331
0.20925738,0.27404428,-0.27493382,0.45404145,-0.03718019,0.5804968,0.5016133,-0.09357,-0.71420795,-0.2655204,-0.70967466,0.47950748,-0.9145306,-0.22719191,0.61391044,-0.64477867,-0.6535876,0.4958104,-0.096934915,0.5723154,-0.2087382,-0.67269874,0.34731373,-0.83971983,-0.55918634,-0.78593016,1.4939868,-0.6163424,2.0556984,0.5370027
1.5349275,-0.07084877,0.36774343,-0.4441246,-1.2054015,0.2629486,0.4705222,0.9929175,0.4761481,1.0677091,-1.0243638,2.0505507,-1.4405029,-0.84218717,-0.08020288,0.6553994,-0.13956858,-0.13068949,-1.5640824,-0.5013965,-1.0600543,0.14509538,1.4395117,-1.4988905,-0.43459493,-1.268781,-0.575245,0.39046383,0.021252256,-0.4789557
1.4418296,-0.03701658,-0.4282017,-0.15332903,-0.7557722,0.2429525,0.5492404,1.2065128,-0.06535016,-0.07403664,-0.0872801,1.6001208,-0.8843762,-1.4193974,0.09275076,0.7947433,-0.27524856,0.2102215,-0.7716722,-0.27372366,-1.1572118,0.13108237,1.3597188,-0.9587238,-1.0058742,-0.5692627,-0.6539216,-0.058554314,-0.2523027,0.03351024
-1.1879421,-0.9201639,0.5076836,-1.3270314,-1.2297697,-1.4547045,-1.2634919,-0.57520473,2.028233,1.3538132,2.0656137,1.0367284,2.2124531,1.6583668,-0.8193495,2.0314178,-0.24590597,-1.5604804,-1.2182126,-2.2663991,1.4551792,1.1090051,-1.4471489,1.9029855,0.97292894,2.6792352,-2.0177705,-0.0928335,-1.58439,-1.993439
2.4310308,-0.07527445,0.675048,-0.6711975,-1.8327599,-0.06442923,0.61146843,1.6423826,0.9446999,1.8227471,-0.26498333,3.5514348,-1.1569213,-2.0453792,-0.060077336,0.5968708,0.4890532,0.22906367,-1.9905356,-0.57169116,-1.889542,0.4068156,2.465331,-1.3407705,-1.5893399,-1.0863192,-0.36747327,1.252938,-0.033811998,-0.23750457
-0.08466913,0.76005185,-0.7312483,0.19402753,-0.8345719,0.33424363,0.2756346,0.46793425,-0.48778763,-0.33001238,-1.1455702,0.93448675,-0.9750302,-0.55731946,0.40576312,0.5252234,-1.1374388,0.58832407,-0.65779996,0.42266974,-0.6952863,-0.95315266,0.580514,-0.81125385,-0.5004557,-1.3828542,-0.029140187,-1.2926413,-0.054051187,0.37703896
1.5557029,-2.6425438,2.6009035,-2.778506,0.7123558,-2.5975692,-2.613049,1.6139636,2.8466852,2.2961876,3.1222725,2.079144,0.85252017,-2.1535149,-2.4660065,-0.7950691,2.749378,-2.1300273,-1.0103185,-2.72511,-1.7397099,2.376262,1.00192,0.06521973,-1.9380382,1.095326,-0.26549608,2.1285813,-0.71155715,-2.7717624
-0.3719723,1.072528,-1.4799849,0.6221636,0.4551381,1.0323595,0.5644382,-0.776305,-0.6431572,-0.76733476,-0.64778477,-0.61266106,-0.084048465,0.90115315,0.7955273,-0.19906792,-0.5337167,0.19316618,0.34780556,0.71719766,0.8038201,-1.2478452,-0.295763,0.361123,1.0006324,0.05850951,0.6790344,-1.5476573,0.78009725,0.49541712
-0.2791178,-0.32318315,-0.011933884,0.2222911,0.57149214,0.1700235,-0.8537471,0.35132286,-0.20260757,-0.18798478,0.34338418,-1.0016108,0.4866616,-0.7060669,-0.22040904,-1.6326212,0.65092105,-0.5163159,0.20764126,0.40309772,-0.45726353,0.29266733,-0.25316942,0.48940435,-0.33650222,0.4333315,1.2430372,0.49754572,1.3484097,0.14228046
0.24489567,-1.06687,1.1203555,-1.4062476,0.5820362,-1.1594012,-1.0506251,0.24114245,1.4489374,0.919971,1.949673,0.05579232,0.88366544,-0.31663072,-0.96956855,-0.35489923,1.1058661,-1.319583,0.78652775,-1.1727387,0.010649814,1.271661,0.20849335,0.29908547,-0.44058836,1.1910336,-0.28808755,0.60380864,-0.41572157,-1.2671857
-0.124312,-0.4028642,0.32281584,-0.35942215,0.5346524,-0.65140814,-0.49849054,0.5910916,-0.026244562,0.016734172,0.33986148,-0.39304894,-0.35744688,-0.9249495,-0.5066958,-1.7834275,0.34465522,-0.7269654,0.3231979,-0.30505747,-0.81108844,0.2582684,0.3260435,-0.21049686,-1.0279739,0.15867451,1.5790187,-0.022770293,1.532731,-0.2448583
-0.18906116,0.75367457,-1.2426946,0.46612036,-0.48787197,1.0619825,0.5882845,-0.496294,-0.52161974,-0.51962525,-0.90442187,0.35829943,-0.45785135,0.15715373,1.0752386,0.52454555,-1.3349226,0.097805895,-0.6716956,0.71105313,0.02544717,-1.1902007,-0.45785984,-0.61428297,0.7414122,-0.89587206,-0.3510657,-1.253713,-0.31247324,0.62206316
0.1400059,-0.74920917,0.3286267,0.26883203,0.8607919,-0.73872375,-0.8796262,0.62512225,0.26665422,-0.19963744,0.47733065,-0.55754054,0.24963757,-0.7627564,-0.8126935,-2.3172138,0.34188476,-0.9427676,0.9475995,-0.56498843,-0.21227431,0.16629408,0.0908674,0.009162719,-0.4806579,0.40005234,2.0640218,0.037870813,2.3301475,-0.008240763
0.5055261,-1.1583322,1.009333,-2.14953,-0.12803043,-1.138132,-1.0752176,0.9327659,1.9267597,1.9766334,1.7885921,1.398109,0.56381696,-0.72615635,-1.535217,0.6228403,1.1277446,-1.356506,-0.20643732,-1.6560197,-0.4282521,1.3107063,0.37363964,0.10810719,-0.84251386,0.6659097,-0.76448727,0.52460355,-0.9345079,-1.8244994
-0.7407059,0.9214345,-1.0892622,1.003519,-0.2996787,0.6877045,0.46254802,-0.27415064,-0.91861635,-0.88409334,-0.44973126,-0.081857756,-0.2630817,0.15763088,0.69794804,-0.5250592,-1.1348122,0.3618793,-0.14787458,0.33984166,-0.2856247,-1.1772288,-0.09108269,0.08102545,0.38742653,-0.46645024,0.22550097,-1.0131004,0.38537553,0.5833738
-0.41170776,-0.5772599,0.63512075,-0.18444197,0.93761694,-0.56587726,-1.2422545,0.12585096,0.1854343,-0.1353567,1.1165152,-0.8173441,0.75953966,0.230832,-0.6555365,-0.95600516,0.8711769,-1.32861,1.2417433,-0.26920006,0.06112785,0.59390867,-0.7582072,0.8520678,0.13830559,0.66426593,0.65075123,0.14353822,0.36384732,-0.5274637
-1.1752994,2.7059739,-1.5531254,0.0021719583,-0.8628551,2.1123934,-0.49379233,-1.5553124,-0.48593578,-0.3889981,-0.41743052,-0.038628485,0.36400142,1.5776768,2.625656,1.2359523,-1.7247188,-0.073591754,-0.670814,1.3039657,1.2700233,-1.5668788,-1.2390795,0.70621496,1.6128342,0.11218457,-1.1561234,-0.8798694,-1.5447485,0.6292617
-0.36957365,-1.3302141,0.250396,-1.4914336,0.88050836,-1.1289132,-0.9689659,-0.6201459,1.3179673,0.86153066,1.1746908,-0.8373993,1.3820666,0.9431601,-0.87390214,-0.09422614,0.7055072,-1.3182014,1.2243372,-1.2208817,1.0869205,0.5360181,-0.43725523,1.361231,0.6017554,1.451128,-0.22877046,0.2276159,-0.014957589,-1.4386592
-0.5261266,-0.0066529172,-0.52267504,0.4067175,0.72079325,0.2402844,-0.48341277,-0.63356245,-0.13587444,-0.08807309,0.22175007,-1.2679572,0.72236615,0.45249563,0.18658498,-0.1940682,-0.29832217,-0.48316017,0.8793296,0.46305817,0.09156532,-0.78959495,-0.6649797,0.65382916,0.23569919,0.67747897,0.70481133,-0.12333828,0.67408955,0.42484075
-3.9636607,3.418894,-3.6754253,-1.2105606,-0.94636154,3.1330402,-1.617483,-3.7223995,0.6939109,0.8726717,1.0914457,0.01963401,3.5675786,4.3424067,3.0100992,2.1480265,-2.5892909,-0.8602312,-1.1042888,-1.3772666,4.7129354,-3.6158266,-3.8371122,3.8031287,4.347654,3.6085436,-2.254741,-3.4983637,-2.4640005,-1.3715625
-0.42149538,0.7818613,-1.0517652,1.129143,-0.047816,1.1379001,-0.24280836,-0.35083088,-1.1378614,-1.0114216,-0.747198,-0.6891904,0.35893083,0.5358595,0.50965786,-1.3539982,-1.0013673,0.5214554,0.43010104,0.7001539,0.43248403,-1.0735389,-0.4792722,-0.11604786,0.26852763,-0.19917887,0.6583464,-0.85907227,0.317691,0.3550202